FANN_FLO_2.1
num_layers=3
learning_rate=0.700000
connection_rate=1.000000
network_type=0
learning_momentum=0.000000
training_algorithm=2
train_error_function=1
train_stop_function=0
cascade_output_change_fraction=0.010000
quickprop_decay=-0.000100
quickprop_mu=1.750000
rprop_increase_factor=1.200000
rprop_decrease_factor=0.500000
rprop_delta_min=0.000000
rprop_delta_max=50.000000
rprop_delta_zero=0.100000
cascade_output_stagnation_epochs=12
cascade_candidate_change_fraction=0.010000
cascade_candidate_stagnation_epochs=12
cascade_max_out_epochs=150
cascade_min_out_epochs=50
cascade_max_cand_epochs=150
cascade_min_cand_epochs=50
cascade_num_candidate_groups=2
bit_fail_limit=3.49999994039535522461e-01
cascade_candidate_limit=1.00000000000000000000e+03
cascade_weight_multiplier=4.00000005960464477539e-01
cascade_activation_functions_count=10
cascade_activation_functions=3 5 7 8 10 11 14 15 16 17 
cascade_activation_steepnesses_count=4
cascade_activation_steepnesses=2.50000000000000000000e-01 5.00000000000000000000e-01 7.50000000000000000000e-01 1.00000000000000000000e+00 
layer_sizes=9 10 3 
scale_included=0
neurons (num_inputs, activation_function, activation_steepness)=(0, 0, 0.00000000000000000000e+00) (0, 0, 0.00000000000000000000e+00) (0, 0, 0.00000000000000000000e+00) (0, 0, 0.00000000000000000000e+00) (0, 0, 0.00000000000000000000e+00) (0, 0, 0.00000000000000000000e+00) (0, 0, 0.00000000000000000000e+00) (0, 0, 0.00000000000000000000e+00) (0, 0, 0.00000000000000000000e+00) (9, 4, 5.00000000000000000000e-01) (9, 4, 5.00000000000000000000e-01) (9, 4, 5.00000000000000000000e-01) (9, 4, 5.00000000000000000000e-01) (9, 4, 5.00000000000000000000e-01) (9, 4, 5.00000000000000000000e-01) (9, 4, 5.00000000000000000000e-01) (9, 4, 5.00000000000000000000e-01) (9, 4, 5.00000000000000000000e-01) (0, 0, 0.00000000000000000000e+00) (10, 4, 5.00000000000000000000e-01) (10, 4, 5.00000000000000000000e-01) (0, 0, 0.00000000000000000000e+00) 
connections (connected_to_neuron, weight)=(0, 1.12862484529614448547e-02) (1, 9.43148061633110046387e-02) (2, -5.59113383293151855469e-01) (3, 1.00332069396972656250e+01) (4, 2.23485946655273437500e-01) (5, -1.91351902484893798828e+00) (6, 2.53737068176269531250e+00) (7, 3.46531830728054046631e-02) (8, -3.29708886146545410156e+00) (0, 5.51995811462402343750e+01) (1, -1.31208562850952148438e+00) (2, 5.50892305374145507812e+00) (3, -4.90937054157257080078e-01) (4, 1.42246648669242858887e-01) (5, -4.23675727844238281250e+00) (6, -4.42761135101318359375e+00) (7, -1.47689729928970336914e-02) (8, 9.91879403591156005859e-01) (0, -1.19032636284828186035e-01) (1, -1.28296151757240295410e-01) (2, -5.65543025732040405273e-02) (3, -2.48399591445922851562e+00) (4, -9.79154765605926513672e-01) (5, -8.01164340972900390625e+00) (6, -9.51493740081787109375e-01) (7, -1.13718202337622642517e-02) (8, 9.31798666715621948242e-03) (0, 1.11753661185503005981e-02) (1, 1.03182579040527343750e+02) (2, 2.50491309165954589844e+00) (3, -1.81159541010856628418e-01) (4, -6.61551117897033691406e-01) (5, -5.27405023574829101562e-01) (6, 8.09146046638488769531e-01) (7, 1.16410493850708007812e+00) (8, -6.26837238669395446777e-02) (0, 7.85979330539703369141e-02) (1, -8.71689796447753906250e-01) (2, -4.58903980255126953125e+00) (3, -5.61309635639190673828e-01) (4, 3.18139679729938507080e-02) (5, -1.81100332736968994141e+00) (6, 2.11825370788574218750e+00) (7, -8.15678100585937500000e+01) (8, -1.24567651748657226562e+00) (0, 3.65891903638839721680e-01) (1, -8.97830188274383544922e-01) (2, -8.05201768875122070312e-01) (3, -9.06085610389709472656e-01) (4, -6.53743743896484375000e-01) (5, 2.65848112106323242188e+00) (6, 2.38203972578048706055e-01) (7, 2.68211998045444488525e-02) (8, -1.30089342594146728516e-01) (0, -1.97334837913513183594e+00) (1, -1.69697856903076171875e+00) (2, -3.41993663460016250610e-03) (3, 5.65722179412841796875e+00) (4, -6.73002576828002929688e+00) (5, -2.30860781669616699219e+00) (6, 4.72371697425842285156e-01) (7, 3.28758597373962402344e-01) (8, 1.27818174362182617188e+01) (0, 6.75443267822265625000e+00) (1, -1.54591131210327148438e+00) (2, 8.08159410953521728516e-02) (3, -4.79830503463745117188e+00) (4, -3.87517660856246948242e-01) (5, 1.09236389398574829102e-02) (6, -1.20911419391632080078e-01) (7, 6.30716085433959960938e-01) (8, 6.43159687519073486328e-01) (0, -2.48309090733528137207e-01) (1, -1.20802974700927734375e+01) (2, -3.46986889839172363281e+00) (3, 8.21435332298278808594e-01) (4, -4.26414847373962402344e-01) (5, -1.67039409279823303223e-01) (6, 2.66177597045898437500e+01) (7, 1.74919104576110839844e+00) (8, 7.58164882659912109375e+00) (9, 2.42748427391052246094e+00) (10, -6.65311932563781738281e-01) (11, 2.79903322458267211914e-01) (12, 1.01489658355712890625e+01) (13, 1.08195319771766662598e-01) (14, -9.41382825374603271484e-01) (15, -1.47319640964269638062e-02) (16, 1.07346000149846076965e-02) (17, 2.83514201641082763672e-01) (18, 3.46091091632843017578e-02) (9, 1.07234477996826171875e+00) (10, -1.53105258941650390625e-01) (11, -6.79767489433288574219e-01) (12, 3.03317438811063766479e-02) (13, 1.42124965786933898926e-01) (14, 1.27380773425102233887e-01) (15, 2.36475542187690734863e-02) (16, -1.37369245290756225586e-01) (17, -4.10661220550537109375e-01) (18, 3.19998168945312500000e+00) 
